#pragma once
#include <cfloat>
namespace Eloquent {
    namespace ML {
        namespace Port {
            class LDA {
                public:
                    int predict(float *x) {
                        float best_score = -FLT_MAX;
                        int best_idx = 0;

                        for (int c = 0; c < 5; c++) {
                            float score = INTERCEPT[c];
                            for (int i = 0; i < 18; i++) {
                                score += COEF[c][i] * x[i];
                            }
                            if (score > best_score) {
                                best_score = score;
                                best_idx = c;
                            }
                        }

                        return CLASS_IDS[best_idx];
                    }

                protected:
                    static constexpr float COEF[5][18] = {
                        { 1.06248200f, -0.40119916f, -0.16050881f, 3.56393099f, 1.20052218f, -3.54700422f, 11.72766781f, 3.15097141f, -5.82597780f, -0.36592102f, 0.70007730f, 1.46229458f, 2.60137105f, -5.20430326f, 1.73525739f, -4.99628019f, -4.55616236f, 5.81165218f },
        { 1.46895504f, -1.46747923f, 0.77680612f, -2.68817377f, 0.60784549f, -2.10447168f, 8.62668991f, 2.23765230f, -3.63809872f, -2.26335454f, 11.66293716f, -1.47075605f, 2.53528786f, 1.31780529f, -2.34995103f, 5.09591866f, 1.96922815f, -0.71163827f },
        { -3.93001127f, 4.52263975f, 4.01785851f, 0.36178783f, 1.02381063f, -0.46751761f, -6.84510660f, 2.40941262f, 5.97117472f, 9.56542492f, 1.97462606f, 2.44288659f, 4.23775482f, 2.99150515f, -1.58721113f, 13.65140152f, -2.92918491f, -0.92997235f },
        { -0.45964897f, -7.95040703f, -0.75423360f, -0.43145856f, -0.51657557f, 10.19028664f, -18.41166687f, -6.67713737f, 1.45051348f, -6.31638241f, 9.73694134f, -0.41697454f, -7.92241526f, 4.90012121f, -7.01773357f, 2.25615120f, -1.87167454f, -5.81019068f },
        { 1.85822368f, 5.29644585f, -3.87992215f, -0.80608654f, -2.31560278f, -4.07129240f, 4.90241718f, -1.12089944f, 2.04238772f, -0.61976802f, -24.07458115f, -2.01745057f, -1.45199990f, -4.00512791f, 9.21963787f, -16.00719261f, 7.38779354f, 1.64014876f }
                    };

                    static constexpr float INTERCEPT[5] = {
                        -14.57916832f, -12.06885719f, -23.96955109f, -35.95896912f, -48.15197754f
                    };

                    static constexpr int CLASS_IDS[5] = {
                        0, 1, 2, 3, 4
                    };
            };
        }
    }
}

// ---------------------------------------------------------------------------
// Scaler parameters exported from StandardScaler (n_features=18)
// Apply scale_features() on your float[18] array BEFORE calling
// classifier.predict().
// ---------------------------------------------------------------------------
static const float SCALER_MEAN[18] = {
    1.06894189f, 0.79333057f, 1.06810768f, 227.19386274f, 136.96180201f, 152.09099225f, -0.25997949f, -1.36932666f, -1.31350438f, -292.62696195f, -166.26396961f, -161.59624434f, 0.30557391f, 0.56357086f, 0.62439060f, 154.11489614f, 76.34111500f, 82.23122734f
};

static const float SCALER_STD[18] = {
    0.40964919f, 0.52297216f, 0.51056149f, 132.31042815f, 107.67824365f, 108.07604498f, 0.67454283f, 0.81894324f, 0.44755733f, 148.87539647f, 146.20996308f, 90.12002630f, 0.15820707f, 0.25443154f, 0.17590552f, 71.22350648f, 53.07780470f, 37.72235065f
};

inline void scale_features(float* features) {
    for (int i = 0; i < 18; i++) {
        features[i] = (features[i] - SCALER_MEAN[i]) / SCALER_STD[i];
    }
}
