#pragma once
#include <cstdarg>
namespace Eloquent {
    namespace ML {
        namespace Port {
            class SVM {
                public:
                    /**
                    * Predict class for features vector
                    */
                    int predict(float *x) {
                        float kernels[69] = { 0 };
                        float decisions[10] = { 0 };
                        int votes[5] = { 0 };
                        kernels[0] = compute_kernel(x,   0.49740883708  , -1.350772738457  , 2.327798604965  , 2.063825845718  , 1.019718885422  , -0.573240697384  , 0.59244197607  , -1.038411736488  , -1.907536029816  , -0.958630859852  , -0.968878567219  , -0.969774842262  , -0.216260433197  , 0.24921233952  , 3.262588739395  , 1.724520802498  , 1.084644794464  , 0.150926187634 );
                        kernels[1] = compute_kernel(x,   0.717919528484  , -0.280323833227  , 0.325655758381  , 0.122635707259  , 0.202611193061  , -0.247770056129  , 0.934832334518  , 0.919023036957  , -2.130644798279  , -0.952170312405  , 0.242074847221  , 0.699076771736  , -0.562568724155  , -1.005781412125  , 1.655757188797  , 0.443905860186  , -0.153379738331  , -0.640441656113 );
                        kernels[2] = compute_kernel(x,   0.630908668041  , -0.224305585027  , -0.457125663757  , 0.74412125349  , -0.059691347182  , -0.72764146328  , 1.112543821335  , 0.45992282033  , -0.142857030034  , -0.582067191601  , 0.181198194623  , 0.175771310925  , -0.603628575802  , -0.284404367208  , 0.327090471983  , 0.603059709072  , -0.220262601972  , -0.598058998585 );
                        kernels[3] = compute_kernel(x,   1.303762197495  , -0.542217314243  , 1.293014287949  , 2.063825845718  , -0.783788084984  , -0.671983659267  , 0.825166940689  , -0.563809931278  , -0.207226321101  , -1.39477622509  , 0.119695164263  , 0.409556239843  , -0.335465699434  , -0.314819097519  , 0.495363414288  , 1.194804906845  , -0.714358568192  , -0.98531126976 );
                        kernels[4] = compute_kernel(x,   0.897905409336  , -0.278457522392  , 0.325177788734  , 0.52303570509  , 0.069900363684  , -0.429575920105  , 0.720205545425  , -0.326210945845  , -1.291672945023  , 0.07271476835  , -0.225829094648  , -0.578269839287  , -0.416135042906  , -0.010021428578  , 0.017123514786  , 0.4249766469  , 0.08930066973  , 0.606998205185 );
                        kernels[5] = compute_kernel(x,   0.919360220432  , -0.801309466362  , 0.425594806671  , 0.687811434269  , -0.709492683411  , 0.061313975602  , 0.748074829578  , -0.047769263387  , -0.411787778139  , -0.425575941801  , -0.26174941659  , 0.171874836087  , -0.792759656906  , -0.428130149841  , -0.088957220316  , 0.63406342268  , -0.159733325243  , -0.189587339759 );
                        kernels[6] = compute_kernel(x,   2.247786998749  , -0.587500751019  , -1.13231754303  , 0.416647106409  , -0.583729207516  , 0.157090380788  , 0.919994175434  , -0.024813989177  , -0.249774992466  , 0.115375511348  , 0.376253902912  , -0.1049400419  , 0.340876430273  , -0.265640705824  , -0.375104755163  , 0.350820690393  , -0.572091281414  , 0.283170223236 );
                        kernels[7] = compute_kernel(x,   0.530188322067  , 0.045525327325  , -0.165434986353  , 1.087172985077  , -0.759400963783  , -0.694585800171  , 0.61958771944  , 0.639091491699  , -0.605984270573  , 0.390209585428  , -0.451062083244  , -0.651454627514  , -0.107393950224  , -0.430433094501  , 1.102143645287  , 0.061675727367  , -0.200081676245  , 0.100450538099 );
                        kernels[8] = compute_kernel(x,   0.405627816916  , -0.745757758617  , 0.143467977643  , -0.117488950491  , -0.607832670212  , -0.590192258358  , 0.749884843826  , 1.552819013596  , -0.711809635162  , 1.233888506889  , 0.190178349614  , 0.822745621204  , -0.288558363914  , -1.725280761719  , 1.443129897118  , -0.909720301628  , -0.319336563349  , -0.95924526453 );
                        kernels[9] = compute_kernel(x,   1.343098282814  , -0.542217314243  , 0.400729864836  , 0.385030329227  , -0.962862730026  , -0.532556891441  , 0.895743727684  , 0.886826694012  , -0.604346454144  , 1.030019164085  , -0.122036114335  , 0.599125266075  , -0.316740244627  , -1.125870943069  , 0.99324375391  , -0.531190633774  , -0.405510604382  , -0.70392036438 );
                        kernels[10] = compute_kernel(x,   0.288818210363  , -0.66219496727  , -0.114269770682  , 0.001938739908  , -0.32114315033  , -0.622117757797  , 0.954015791416  , 1.057050943375  , 0.015335142612  , 0.642995417118  , -0.074420772493  , 0.610814452171  , -0.654048740864  , -1.141627430916  , 0.60839420557  , -0.372585266829  , -0.131427079439  , -0.704915940762 );
                        kernels[11] = compute_kernel(x,   0.531975090504  , -0.157546758652  , -1.171527385712  , -0.069948598742  , -0.544738292694  , 0.323922425508  , -0.003663972719  , 1.029922008514  , -1.011831521988  , 0.48968309164  , -0.028162967414  , -2.101429462433  , 1.121194958687  , -0.58721601963  , 0.045331314206  , -0.460811942816  , -0.225116401911  , 1.257008194923 );
                        kernels[12] = compute_kernel(x,   0.051024530083  , -0.442315191031  , -1.764472723007  , -0.189030081034  , -0.693187355995  , -0.482690870762  , 0.454183846712  , 0.679933190346  , -1.14547932148  , 1.043966054916  , -0.227499827743  , -1.487828493118  , -0.135661944747  , -0.673308312893  , 0.018272196874  , -0.936164617538  , -0.168387755752  , 0.272769033909 );
                        kernels[13] = compute_kernel(x,   0.182139292359  , 0.231791436672  , -0.975952506065  , -0.42546236515  , 0.09414562583  , 0.092109397054  , 0.435725450516  , 0.93690943718  , -1.120385408401  , 0.830046594143  , 0.622892796993  , 0.093099579215  , 0.054497383535  , -0.763090848923  , 0.115689694881  , -0.8938382864  , -0.529403924942  , -0.227700576186 );
                        kernels[14] = compute_kernel(x,   0.261402189732  , -0.98104184866  , -0.301238417625  , -0.614700376987  , -1.271245360374  , -1.085885047913  , 1.264918208122  , 1.057944774628  , 0.651383221149  , 1.402378320694  , 0.305561900139  , 1.215605854988  , -1.10932636261  , -1.312844395638  , -0.920736134052  , -1.31114256382  , -0.93905466795  , -1.620503902435 );
                        kernels[15] = compute_kernel(x,   0.903863966465  , -0.357819348574  , 1.748242497444  , 1.502342581749  , -0.335179835558  , -0.777789890766  , 1.239944219589  , 0.173730835319  , -1.160753488541  , -0.814137935638  , -0.134044334292  , 0.814444601536  , -0.580911159515  , -0.15361918509  , 2.113711833954  , 1.581116676331  , -0.352766722441  , -1.197423100471 );
                        kernels[16] = compute_kernel(x,   -0.088433884084  , -0.913816452026  , 0.421291649342  , -0.071794845164  , -0.707507669926  , -0.946316957474  , 0.5099208951  , 1.377526044846  , -1.286216616631  , 1.173281550407  , 0.135775700212  , -0.035312775522  , -0.224498271942  , -1.670934081078  , 1.748371601105  , -0.66259509325  , -0.367347538471  , -0.775860130787 );
                        kernels[17] = compute_kernel(x,   0.308483928442  , -0.714012265205  , -0.093230053782  , -0.65266340971  , -0.353470116854  , -0.364594846964  , 1.294596076012  , 0.4751265347  , 0.308812648058  , 1.009304046631  , 0.340751260519  , 0.793268382549  , -1.176052689552  , -1.035626769066  , -1.176092028618  , -1.146333575249  , -0.53212505579  , -0.962372839451 );
                        kernels[18] = compute_kernel(x,   0.367485433817  , -0.502069830894  , 0.104258328676  , 0.23698630929  , 0.06848244369  , 0.559690773487  , 0.58990842104  , 0.351706624031  , -1.733522415161  , -0.735892176628  , 0.230693101883  , 0.404135048389  , -0.276631355286  , -0.816613674164  , 1.257163047791  , 0.387693226337  , -0.187166079879  , 0.126827940345 );
                        kernels[19] = compute_kernel(x,   0.509328901768  , -0.742956459522  , 0.137731209397  , -0.934443473816  , 1.12960255146  , -0.643024742603  , 0.776305735111  , 0.43696770072  , -0.670898795128  , -0.634880542755  , 0.484954625368  , 0.954884886742  , -0.271798580885  , -0.534150481224  , 0.903317809105  , 0.014051021077  , 0.347004920244  , -1.32390332222 );
                        kernels[20] = compute_kernel(x,   0.085590779781  , -0.341946572065  , 0.444244801998  , -0.256417304277  , -0.428616285324  , -0.444126009941  , 1.335133075714  , 0.535048961639  , -1.255123376846  , -0.489464581013  , 0.735770344734  , 1.167832374573  , -1.28405547142  , -0.539425075054  , 0.971601784229  , 0.502054154873  , -0.699933707714  , -1.127439022064 );
                        kernels[21] = compute_kernel(x,   0.646402239799  , -0.550154626369  , 0.409816026688  , 0.037709418684  , 1.00695836544  , -0.008893850259  , 0.290950357914  , -0.645493149757  , -0.885823309422  , -0.928583800793  , 0.620386779308  , 0.358902812004  , -0.514326095581  , 0.485023975372  , 0.299201518297  , 0.890425026417  , -0.036801852286  , -0.145285397768 );
                        kernels[22] = compute_kernel(x,   -0.35483494401  , 0.436263114214  , 0.125775754452  , -0.283418387175  , -0.218348920345  , -0.629604756832  , 0.930128455162  , 0.215467602015  , 0.717933416367  , -0.334101349115  , 0.638451337814  , 0.771753430367  , -1.074338316917  , 0.441332191229  , -0.19279718399  , 0.157092019916  , -0.438008755445  , -0.857044935226 );
                        kernels[23] = compute_kernel(x,   -0.187962844968  , 0.379776328802  , 0.0267925933  , -0.448886275291  , 0.645547986031  , -0.629604756832  , 0.651800692081  , 0.183867082  , 0.386818289757  , 0.122759155929  , 0.781297266483  , 1.454303741455  , -0.6564848423  , 0.516389369965  , 0.0802949965  , -0.254229933023  , -0.125498518348  , -1.341923475266 );
                        kernels[24] = compute_kernel(x,   0.734607100487  , 0.358302921057  , -0.466211676598  , -0.195722669363  , 0.280592978001  , 1.107650876045  , 0.538876771927  , 0.504044294357  , -0.577071666718  , -0.709229290485  , 0.481508791447  , 0.948277950287  , 0.010671278462  , 0.052921377122  , 0.542881965637  , 0.724990546703  , -0.135958611965  , -0.031392838806 );
                        kernels[25] = compute_kernel(x,   0.489660859108  , -0.938093066216  , 0.497801482677  , 0.275872498751  , 1.511146187782  , -0.873001277447  , 0.796212494373  , 0.179097503424  , -1.03201675415  , -0.517870903015  , 0.208242923021  , 0.287920325994  , -0.545252501965  , -0.421316504478  , 1.62482380867  , 0.860309779644  , 0.69241976738  , -1.124819993973 );
                        kernels[26] = compute_kernel(x,   0.659513413906  , -1.317160964012  , -0.67421990633  , 0.121366433799  , -0.060116611421  , -0.504021644592  , 1.499451875687  , 0.596460998058  , -0.314689517021  , -0.184378162026  , 0.955155789852  , 1.162750244141  , -1.031783223152  , -1.147098660469  , 0.00413153274  , -0.134960368276  , -0.56253272295  , -1.462522268295 );
                        kernels[27] = compute_kernel(x,   1.073121190071  , -1.000647068024  , -0.149656310678  , -0.079179726541  , -0.064086683095  , 0.325052499771  , 1.32898080349  , 0.285227030516  , -0.043578132987  , -0.424447894096  , 0.7404692173  , 1.059071660042  , -0.694175601006  , -0.985378146172  , -0.189039051533  , 0.167257413268  , -0.474684119225  , -0.766956150532 );
                        kernels[28] = compute_kernel(x,   0.400264918804  , -1.374580860138  , 1.212203145027  , -0.75916749239  , 0.2094168365  , -0.63723295927  , 0.659399926662  , 0.306691288948  , 1.907115101814  , -0.446496129036  , 0.704862177372  , 0.57422208786  , -0.825182795525  , -0.993298828602  , -1.234182596207  , 0.152057215571  , -0.38546833396  , -1.240015149117 );
                        kernels[29] = compute_kernel(x,   1.093980312347  , -1.706032633781  , -0.212297156453  , -0.318958193064  , -0.102510392666  , -0.244238510728  , 1.300388097763  , 0.472443848848  , 1.238883376122  , -0.40855255723  , 0.680636823177  , 0.339590072632  , -0.634494900703  , -1.304954528809  , -1.076833724976  , 0.394286185503  , -0.510722875595  , -0.458756923676 );
                        kernels[30] = compute_kernel(x,   0.306101471186  , -0.948363184929  , -0.191257566214  , -0.147259235382  , 0.493412494659  , -0.280260622501  , 1.146927118301  , 0.494206011295  , -0.003757474944  , 0.172085672617  , 0.592089056969  , 0.933200478554  , -1.044033646584  , -0.827919721603  , -0.037077058107  , 0.222329244018  , 0.114728964865  , -0.937339007854 );
                        kernels[31] = compute_kernel(x,   0.711960673332  , -0.48199608922  , 0.145381629467  , 0.193715423346  , -0.446622937918  , -0.527612626553  , 1.163213729858  , 0.107847191393  , -0.137402877212  , -0.072393551469  , 0.743706226349  , 0.957426011562  , -0.81500941515  , -0.018864030018  , 0.152900591493  , 0.479160696268  , -0.489393442869  , -0.825598418713 );
                        kernels[32] = compute_kernel(x,   0.145187973976  , -0.311136156321  , 4.132930278778  , 0.132559135556  , 0.726649045944  , -0.327583879232  , 0.860273778439  , -1.605130910873  , -1.064200401306  , -1.233465075493  , 0.127422139049  , 0.578965544701  , -0.850678682327  , 0.628626167774  , 1.84651350975  , 0.936984956264  , 0.278531134129  , -0.617936789989 );
                        kernels[33] = compute_kernel(x,   0.475954025984  , -0.227573409677  , -0.6876090765  , 1.056133270264  , -0.644696831703  , 0.281260937452  , 0.57832723856  , 0.010363047011  , -0.496885359287  , -1.39477622509  , 0.306606084108  , 0.534072041512  , -0.451757580042  , 0.60629171133  , 0.033284369856  , 1.551482439041  , -0.571062803268  , -0.566748380661 );
                        kernels[34] = compute_kernel(x,   -0.60812485218  , 1.087496638298  , 0.729240953922  , 2.063825845718  , 0.465339004993  , 0.225885644555  , -0.41807949543  , -1.185084939003  , 0.644293606281  , -0.799370646477  , -0.398121327162  , -0.208449184895  , 0.07416754216  , 1.654468297958  , 0.581891775131  , 1.881095051765  , 0.008172615431  , 0.308190315962 );
                        kernels[35] = compute_kernel(x,   -1.143309593201  , 0.572111725807  , 1.731986045837  , 1.46311044693  , -0.465480417013  , -0.483821004629  , -0.095234133303  , -0.276424884796  , 0.151710942388  , 0.890345990658  , -0.297356516123  , -0.351261228323  , -0.390641242266  , 1.231721282005  , 0.906819403172  , 0.636627852917  , -0.175705835223  , 0.33034452796 );
                        kernels[36] = compute_kernel(x,   1.242377996445  , 1.32371366024  , -0.392093330622  , -0.362575262785  , 0.007231321651  , 0.435379058123  , -2.930631399155  , 0.849859476089  , 1.972574830055  , 1.228966236115  , 0.318614304066  , -1.240660309792  , 4.103601455688  , -0.090205736458  , -1.664182782173  , -0.970631301403  , -0.172222733498  , 1.844235539436 );
                        kernels[37] = compute_kernel(x,   -0.919222712517  , 0.71076130867  , 2.17765045166  , 2.063825845718  , -0.740118265152  , -0.642883479595  , 0.145091578364  , -0.704818367958  , 0.812850892544  , 0.809434115887  , -0.359590500593  , -0.312297135592  , -0.560319066048  , 0.892815351486  , 0.683002054691  , 0.694902122021  , -0.404340714216  , -0.149841308594 );
                        kernels[38] = compute_kernel(x,   -0.545546889305  , 1.160789132118  , 0.541794359684  , 1.334913253784  , -0.540201187134  , -0.707158267498  , -0.628364145756  , 0.27866846323  , 0.283173292875  , -0.569556236267  , 0.163133621216  , 0.851545155048  , 0.251860380173  , 0.82425814867  , 0.577012777328  , 1.24536383152  , -0.522528529167  , -1.028370857239 );
                        kernels[39] = compute_kernel(x,   -0.869758367538  , 1.02073776722  , 1.009453892708  , 0.834932386875  , -0.843763113022  , -0.073309957981  , -0.169067844748  , -0.311603099108  , 1.230156064034  , 0.383748888969  , 0.391394734383  , 0.09496307373  , -0.292853683233  , 0.778006076813  , 0.010360174812  , 0.413208335638  , -0.714887022972  , 0.196989327669 );
                        kernels[40] = compute_kernel(x,   -0.243388369679  , 0.84474170208  , 1.458943486214  , 1.728274583817  , -0.024953939021  , -0.225591763854  , -1.033730506897  , -0.474673032761  , -0.365420639515  , 0.240588977933  , 0.244058772922  , -1.250994324684  , 1.439468622208  , 0.948540687561  , 1.175922393799  , 1.072368502617  , -0.156742960215  , 0.529765546322 );
                        kernels[41] = compute_kernel(x,   -1.155825138092  , 0.760712444782  , 1.219853639603  , 0.814162254333  , -0.81583148241  , -0.847856462002  , -0.127807304263  , 0.145410180092  , 1.411259055138  , -0.136384874582  , 0.666644632816  , 0.831046640873  , -0.454530656338  , 0.698314666748  , 0.395000338554  , 0.781892001629  , -0.941794991493  , -1.247879266739 );
                        kernels[42] = compute_kernel(x,   0.023608520627  , 0.892826616764  , 0.26779589057  , 0.637155532837  , -0.629383981228  , 0.038994353265  , -0.933112740517  , -0.043893456459  , 1.034867167473  , 0.451021760702  , 0.130345955491  , -0.527447044849  , 1.921133637428  , 0.663661599159  , -0.202745318413  , 0.520228624344  , -0.377879798412  , 0.729097127914 );
                        kernels[43] = compute_kernel(x,   -1.421035051346  , 1.091231107712  , 0.334263920784  , 2.063825845718  , -0.880769073963  , -0.24861766398  , -0.136856421828  , -0.95434230566  , 0.614290833473  , -0.192992344499  , -0.059802029282  , -0.058013688773  , -0.912802636623  , 1.855731487274  , -0.648900389671  , 1.155477046967  , -0.531185925007  , -0.483242064714 );
                        kernels[44] = compute_kernel(x,   -1.071196556091  , 1.021206378937  , 0.060265474021  , 2.063825845718  , -0.750184953213  , 0.088295266032  , -0.699665725231  , -0.948975622654  , 0.251535058022  , -1.214493274689  , 0.068842820823  , 0.098520584404  , 0.287108242512  , 1.64531648159  , 0.57124632597  , 1.865536689758  , -0.559945523739  , 0.241084963083 );
                        kernels[45] = compute_kernel(x,   -1.515198469162  , -1.356375336647  , -1.262860178947  , 1.234524846077  , 0.792862772942  , 0.896038711071  , -0.75106048584  , -2.01056933403  , -0.079580053687  , -1.39477622509  , -0.106477595866  , -0.19947052002  , 0.315263956785  , 0.650561213493  , -0.860014498234  , 1.221612334251  , 0.487395465374  , 1.002850532532 );
                        kernels[46] = compute_kernel(x,   -0.152798593044  , -0.398433357477  , -0.898486793041  , 0.292949944735  , 0.888709545135  , 0.377319842577  , -0.425318449736  , -1.549084424973  , 0.739754021168  , -1.39477622509  , 0.291987359524  , 0.412097334862  , 0.250565290451  , 0.764610767365  , -1.318138837814  , 1.584218859673  , 0.173256084323  , -0.524436175823 );
                        kernels[47] = compute_kernel(x,   5.6043176651  , 0.216851755977  , 5.742247581482  , 0.083403415978  , 1.653923988342  , 1.468437314034  , -1.1263859272  , -3.212277889252  , -1.837167143822  , -1.39477622509  , -0.109819062054  , 0.254546552896  , 0.944471538067  , 1.49231171608  , 0.324970990419  , 0.968479275703  , 0.044302195311  , -0.077952705324 );
                        kernels[48] = compute_kernel(x,   -0.693348944187  , -0.403569430113  , -0.556586682796  , 1.467033624649  , -0.127889946103  , 1.010744452477  , -0.015608356334  , -1.357097864151  , 0.78666639328  , -1.39477622509  , 0.385756075382  , -0.727858245373  , -0.248241305351  , 1.472178220749  , -0.76515185833  , 1.192075967789  , -0.680521070957  , 0.841801464558 );
                        kernels[49] = compute_kernel(x,   -1.551551580429  , -1.728440999985  , -1.294419407845  , 1.26844894886  , 0.242594614625  , 0.796730518341  , -0.728258430958  , -0.949274897575  , -0.789270281792  , -1.39477622509  , 0.50218385458  , 0.028215713799  , -0.132170587778  , -0.136039867997  , -0.750764846802  , 1.533753395081  , -0.160193011165  , 1.156984686852 );
                        kernels[50] = compute_kernel(x,   -1.469307899475  , -3.132207632065  , -1.92609667778  , -1.450578808784  , -0.773295938969  , 0.022042755038  , 0.178751409054  , -1.151993393898  , 1.105235695839  , -0.46526274085  , 0.946384549141  , 1.582546591759  , -1.182663798332  , -0.870432913303  , -2.290440797806  , -0.317955285311  , -1.120997190475  , -0.870885908604 );
                        kernels[51] = compute_kernel(x,   -1.522350907326  , 0.817199230194  , -0.725863099098  , 0.074403047562  , 1.037725687027  , 0.980372846127  , -0.212861970067  , -1.108169913292  , 0.603380382061  , -1.39477622509  , 0.869845032692  , 0.158491566777  , -0.878193438053  , 1.23367202282  , -1.626902580261  , 0.736805379391  , -0.040989998728  , 0.290293514729 );
                        kernels[52] = compute_kernel(x,   7.15474653244  , -1.423598766327  , 5.731011390686  , -0.618161976337  , 3.12948179245  , 0.515616595745  , -0.979440391064  , -3.212277889252  , 0.380818903446  , -1.39477622509  , 0.227247267962  , 0.91354906559  , 0.91010171175  , 0.679475963116  , 0.294287234545  , 0.534365355968  , -0.044544111937  , -0.318346172571 );
                        kernels[53] = compute_kernel(x,   -1.018751859665  , -0.616911530495  , -1.373798847198  , -0.564390718937  , -0.246422335505  , 0.934320926666  , 0.121564522386  , -0.446948349476  , 1.156514048576  , -1.39477622509  , 0.937404513359  , 0.956240177155  , -0.791634678841  , -0.045358337462  , -1.980030894279  , 0.602592051029  , -0.807177960873  , 0.32115483284 );
                        kernels[54] = compute_kernel(x,   -1.830468177795  , 0.601055800915  , -0.277807325125  , 0.588115155697  , 0.804630935192  , 1.225747108459  , -1.284190416336  , -1.618545889854  , -0.278685212135  , -1.39477622509  , 0.898456037045  , 0.049222446978  , -0.005240792409  , 1.31541466713  , -0.749860465527  , 0.753847777843  , -0.146742403507  , 0.564504384995 );
                        kernels[55] = compute_kernel(x,   -0.960345685482  , 0.036188215017  , -0.646485805511  , 0.798238754272  , 0.63392162323  , 1.010885596275  , -0.487571001053  , -0.977893531322  , 0.878310620785  , -1.39477622509  , 0.539357244968  , -1.741264939308  , -0.241921305656  , 1.295237421989  , -1.740284442902  , 0.692542254925  , -0.238277226686  , 1.075803399086 );
                        kernels[56] = compute_kernel(x,   -1.051528573036  , -0.411971390247  , -0.884141802788  , -1.409731030464  , -0.07245194912  , 0.62128162384  , -0.511821508408  , -0.483318269253  , 1.099236369133  , -1.39477622509  , 0.82828605175  , 1.301835298538  , -0.627846837044  , 0.0449671112  , -1.653231501579  , 0.344230741262  , -0.630313098431  , -0.557399809361 );
                        kernels[57] = compute_kernel(x,   -1.118873953819  , 0.406385809183  , -1.072066187859  , 2.063825845718  , 0.037998661399  , 0.915815412998  , -0.578416228294  , -1.623614788055  , 0.294083744287  , -1.39477622509  , 0.414680272341  , -1.043467879295  , -0.125552773476  , 1.777926206589  , -0.989255726337  , 2.423402070999  , -0.451770037413  , 1.61670935154 );
                        kernels[58] = compute_kernel(x,   0.602896690369  , 1.766270756721  , 2.739034175873  , 2.063825845718  , -0.768333494663  , -1.177706241608  , -2.801420927048  , -1.337422728539  , -3.85822892189  , 1.183741688728  , -2.284460067749  , -3.758083581924  , 2.773515701294  , 0.91598123312  , 2.381329059601  , -0.419263571501  , 1.83693253994  , 2.406634092331 );
                        kernels[59] = compute_kernel(x,   1.291844844818  , 4.224613666534  , 1.492416381836  , 2.063825845718  , 0.763513207436  , -1.241698503494  , -3.102189302444  , -2.226406097412  , -6.002573490143  , -1.037799477577  , -2.284460067749  , -3.758083581924  , 2.488755464554  , 0.851808547974  , 1.06805896759  , -0.344447314739  , 1.486755847931  , 1.944088697433 );
                        kernels[60] = compute_kernel(x,   0.061155229807  , -0.637451827526  , 0.065046578646  , -1.433270335197  , -1.158809781075  , -1.354426503181  , 0.265252947807  , 1.035586714745  , 0.224260285497  , 1.520515799522  , -1.072775959969  , 0.113428711891  , 0.320395857096  , -1.222080349922  , 0.763299047947  , -1.874846816063  , 0.199825525284  , -1.150826096535 );
                        kernels[61] = compute_kernel(x,   0.029569724575  , -0.679000854492  , 0.177419036627  , -1.127604722977  , -0.637324035168  , -0.926540195942  , 0.099487349391  , 1.190309166908  , 0.468642383814  , 1.522361755371  , -1.137307167053  , 0.38295891881  , 0.501392960548  , -1.111274600029  , 0.863530993462  , -1.769989848137  , 0.754102110863  , -1.068305373192 );
                        kernels[62] = compute_kernel(x,   0.550451755524  , 0.894692838192  , 1.724333524704  , 1.276641726494  , -1.047508478165  , -1.324761271477  , -1.352957010269  , -1.453389286995  , -1.111112833023  , -0.462904155254  , -2.284460067749  , -3.758083581924  , 2.07603430748  , 0.279091089964  , 0.224986404181  , -0.662260353565  , 1.591850042343  , 2.304284334183 );
                        kernels[63] = compute_kernel(x,   3.029109239578  , 2.38622546196  , 1.963903188705  , 1.20429289341  , -0.869284451008  , -1.324196219444  , -1.493026733398  , -1.478431105614  , -3.486745834351  , -1.39477622509  , -2.284460067749  , -3.758083581924  , 1.777982592583  , 0.482648283243  , 0.34848511219  , -0.323655098677  , 1.685113310814  , 2.283328294754 );
                        kernels[64] = compute_kernel(x,   0.776325643063  , -0.577230632305  , -0.324669510126  , -0.877325892448  , -1.095431804657  , -1.418560147285  , 0.368404299021  , 1.17033469677  , -0.307052582502  , 0.857529997826  , -1.704305291176  , -0.297897309065  , -0.39710432291  , -1.171375155449  , 0.011613899842  , -1.390802621841  , 0.856276273727  , -0.555707812309 );
                        kernels[65] = compute_kernel(x,   0.110026329756  , 0.072134688497  , 0.323742091656  , -1.01971590519  , -0.482778221369  , -0.890800476074  , 0.13712914288  , 0.618223190308  , 0.319177597761  , 1.129595279694  , -1.085515141487  , -1.14494407177  , -0.188340187073  , -0.425971031189  , 0.286735087633  , -1.618349790573  , 0.532748937607  , -0.178480699658 );
                        kernels[66] = compute_kernel(x,   0.169027850032  , 0.107146136463  , 0.599654197693  , -0.952674984932  , 2.658471822739  , 1.236200690269  , 0.133147194982  , 0.654295325279  , 0.609381914139  , 1.419811844826  , -1.331945180893  , -0.547098398209  , -0.04693505168  , -0.29625082016  , 0.451183825731  , -1.622644782066  , 1.726016759872  , 0.584625601768 );
                        kernels[67] = compute_kernel(x,   0.1970372051  , -0.089856676757  , -0.085579864681  , -1.238955259323  , 0.168299198151  , -0.310632288456  , 0.261995941401  , 0.79023629427  , -0.167950898409  , 1.40360891819  , -0.995609879494  , -1.281318545341  , 0.114823669195  , -0.332495391369  , 0.864277124405  , -1.711652636528  , 0.995180547237  , 0.235813483596 );
                        kernels[68] = compute_kernel(x,   0.333515167236  , -0.35688623786  , 0.167856827378  , -0.993753492832  , 3.373919487  , 0.85111695528  , 0.028909178451  , 1.207003831863  , 0.03988378495  , 1.378586649895  , -1.746908426285  , 0.343994855881  , 0.408769935369  , -1.12298989296  , 0.837573826313  , -1.621943593025  , 2.294048309326  , -0.251226663589 );
                        decisions[0] = 1.078567665685
                        + kernels[1] * 0.311342748822
                        + kernels[2]
                        + kernels[15] * 0.605664870048
                        + kernels[17] * 0.745482930654
                        + kernels[18] * 0.264801443612
                        + kernels[20] * -0.66532507261
                        + kernels[24] * -0.1115112627
                        + kernels[25] * -0.602653347605
                        + kernels[26] * -0.046964635502
                        + kernels[27] * -0.083491343957
                        + kernels[29] * -0.231129667274
                        - kernels[31]
                        + kernels[33] * -0.186216663489
                        ;
                        decisions[1] = 0.241203678462
                        + kernels[0] * 0.002565784122
                        + kernels[3] * 0.10368457165
                        + kernels[7] * 0.113106551507
                        + kernels[13] * 0.017945835454
                        + kernels[35] * -0.016031052685
                        + kernels[37] * -0.047438225486
                        + kernels[38] * -0.128685087373
                        + kernels[40] * -0.023971973119
                        + kernels[42] * -0.021176404069
                        ;
                        decisions[2] = 0.50417653806
                        + kernels[3] * 0.010214741855
                        + kernels[4] * 0.030084316159
                        + kernels[5] * 0.160182014159
                        + kernels[6] * 0.02140172096
                        + kernels[47] * -0.05184343427
                        + kernels[48] * -0.048591407714
                        + kernels[49] * -0.049494866457
                        + kernels[50] * -0.049409146626
                        + kernels[53] * -0.022543938065
                        ;
                        decisions[3] = 0.896077818076
                        + kernels[8] * 0.048787775514
                        + kernels[9] * 0.01136747582
                        + kernels[10] * 0.063599166475
                        + kernels[11] * 0.0077442941
                        + kernels[12] * 0.150234776442
                        + kernels[14] * 0.045989952969
                        + kernels[16] * 0.035173521267
                        + kernels[59] * -0.002024247386
                        + kernels[60] * -0.093990487582
                        + kernels[64] * -0.165151227264
                        + kernels[67] * -0.101731000355
                        ;
                        decisions[4] = 0.702414647748
                        + kernels[22] * 0.253261156428
                        + kernels[32] * 0.039929945199
                        + kernels[33] * 0.059838157998
                        + kernels[38] * -0.099272453639
                        + kernels[39] * -0.112732931672
                        + kernels[41] * -0.141023874314
                        ;
                        decisions[5] = 0.960647982695
                        + kernels[21] * 0.314465472936
                        + kernels[28] * 0.097800515374
                        + kernels[33] * 0.031461768198
                        + kernels[47] * -0.039086462222
                        + kernels[48] * -0.020960481854
                        + kernels[49] * -0.125122701781
                        + kernels[50] * -0.025299133269
                        + kernels[51] * -0.029068854858
                        + kernels[52] * -0.059599990211
                        + kernels[56] * -0.144590132314
                        ;
                        decisions[6] = 0.357475621209
                        + kernels[19] * 0.063765362626
                        + kernels[23] * 0.005340420829
                        + kernels[28] * 0.006617306068
                        + kernels[30] * 0.070817862234
                        + kernels[60] * -0.03148897608
                        + kernels[61] * -0.007938174208
                        + kernels[64] * -0.061582036662
                        + kernels[66] * -0.030564087699
                        + kernels[68] * -0.014967677109
                        ;
                        decisions[7] = 0.381577390378
                        + kernels[34] * 0.173742121454
                        + kernels[36] * 0.033222780629
                        + kernels[43] * 0.026375824554
                        + kernels[44] * 0.111556872594
                        + kernels[46] * -0.018417114383
                        + kernels[47] * -0.035028840304
                        + kernels[48] * -0.106958568272
                        + kernels[54] * -0.069365239986
                        + kernels[57] * -0.115127836287
                        ;
                        decisions[8] = 0.270907700507
                        + kernels[35] * 0.114995258448
                        + kernels[36] * 0.055184385441
                        + kernels[58] * -0.012401411393
                        + kernels[61] * -0.014993401012
                        + kernels[62] * -0.038456649177
                        + kernels[65] * -0.076963650477
                        + kernels[66] * -0.02736453183
                        ;
                        decisions[9] = 0.054786424337
                        + kernels[45] * 0.009887753243
                        + kernels[47] * 0.0234112178
                        + kernels[55] * 0.049195451313
                        + kernels[62] * -0.016797180317
                        + kernels[63] * -0.01660938229
                        + kernels[65] * -0.009107650232
                        + kernels[66] * -0.039980209517
                        ;
                        votes[decisions[0] > 0 ? 0 : 1] += 1;
                        votes[decisions[1] > 0 ? 0 : 2] += 1;
                        votes[decisions[2] > 0 ? 0 : 3] += 1;
                        votes[decisions[3] > 0 ? 0 : 4] += 1;
                        votes[decisions[4] > 0 ? 1 : 2] += 1;
                        votes[decisions[5] > 0 ? 1 : 3] += 1;
                        votes[decisions[6] > 0 ? 1 : 4] += 1;
                        votes[decisions[7] > 0 ? 2 : 3] += 1;
                        votes[decisions[8] > 0 ? 2 : 4] += 1;
                        votes[decisions[9] > 0 ? 3 : 4] += 1;
                        int val = votes[0];
                        int idx = 0;

                        for (int i = 1; i < 5; i++) {
                            if (votes[i] > val) {
                                val = votes[i];
                                idx = i;
                            }
                        }

                        return idx;
                    }

                protected:
                    /**
                    * Compute kernel between feature vector and support vector.
                    * Kernel type: linear
                    */
                    float compute_kernel(float *x, ...) {
                        va_list w;
                        va_start(w, 18);
                        float kernel = 0.0;

                        for (uint16_t i = 0; i < 18; i++) {
                            kernel += x[i] * va_arg(w, double);
                        }

                        return kernel;
                    }
                };
            }
        }
    }
// ---------------------------------------------------------------------------
// Scaler parameters exported from StandardScaler (n_features=18)
// Apply scale_features() on your float[18] array BEFORE calling
// classifier.predict().
// ---------------------------------------------------------------------------
static const float SCALER_MEAN[18] = {
    1.06894189f, 0.79333057f, 1.06810768f, 227.19386274f, 136.96180201f, 152.09099225f, -0.25997949f, -1.36932666f, -1.31350438f, -292.62696195f, -166.26396961f, -161.59624434f, 0.30557391f, 0.56357086f, 0.62439060f, 154.11489614f, 76.34111500f, 82.23122734f
};

static const float SCALER_STD[18] = {
    0.40964919f, 0.52297216f, 0.51056149f, 132.31042815f, 107.67824365f, 108.07604498f, 0.67454283f, 0.81894324f, 0.44755733f, 148.87539647f, 146.20996308f, 90.12002630f, 0.15820707f, 0.25443154f, 0.17590552f, 71.22350648f, 53.07780470f, 37.72235065f
};

inline void scale_features(float* features) {
    for (int i = 0; i < 18; i++) {
        features[i] = (features[i] - SCALER_MEAN[i]) / SCALER_STD[i];
    }
}
