#pragma once
#include <cstdarg>
namespace Eloquent {
    namespace ML {
        namespace Port {
            class SVM {
                public:
                    /**
                    * Predict class for features vector
                    */
                    int predict(float *x) {
                        float kernels[48] = { 0 };
                        float decisions[6] = { 0 };
                        int votes[4] = { 0 };
                        kernels[0] = compute_kernel(x,   -0.959054866211  , 1.218919630924  , -1.040203155331  , 0.982873925013  , -0.934317251996  , 0.54468005283  , 1.840784715413  , -1.173190300519  , 1.582656022866  , 1.009456656736  , -0.974193601264  , 0.962597423103  , -1.000443116128  , 0.835061282757  , -1.220559425415  , -1.286726391728  , 1.054386189851  , -1.087177532378 );
                        kernels[1] = compute_kernel(x,   -0.767284782113  , 1.119300680848  , -0.999999144991  , 1.79906336637  , -1.700491281398  , 0.973068275543  , 1.840784715413  , -1.669655138004  , 1.775830965988  , 1.009456656736  , -0.974193601264  , 1.185166482044  , 1.249353345248  , 0.87212009641  , -0.47445433259  , -0.755501358703  , 0.885119167891  , -0.92211981839 );
                        kernels[2] = compute_kernel(x,   -0.575514698014  , 0.999757940758  , -0.861268879355  , 1.50045747319  , -0.366780933921  , 0.740367013868  , 0.771964351264  , -0.829483874569  , 1.158561843755  , 0.641058425581  , -0.974193601264  , 0.899479386823  , -0.318594371238  , 0.938825960985  , -1.194162741564  , -0.338182647143  , 0.186743699646  , -0.702480821487 );
                        kernels[3] = compute_kernel(x,   -0.835774097862  , 0.212768235161  , -0.324104265017  , 1.042595103649  , -0.43772297368  , 0.99399987992  , 0.365347908381  , -0.218450228434  , 1.093489654527  , 0.827846558553  , -0.974193601264  , 1.012842652337  , 0.03678884736  , 0.886539343904  , -0.10401243038  , -0.498097393827  , 0.549267171854  , -0.438853370862 );
                        kernels[4] = compute_kernel(x,   0.451825038228  , 0.143034970108  , -0.174830181105  , 1.560178651826  , 0.31426264777  , 0.778010229299  , 1.840784715413  , -1.135000697636  , 1.707783378088  , 1.009456656736  , -0.974193601264  , 1.129583957436  , -1.022055286167  , 0.588047444845  , -1.225110294063  , -0.342101132698  , 0.85084855605  , -0.302002947192 );
                        kernels[5] = compute_kernel(x,   0.081982733181  , -0.185707565141  , -0.051359139528  , 1.002780984558  , -0.508665013439  , 1.161558997774  , 1.840784715413  , -1.192285101961  , 2.066262227653  , 1.009456656736  , -0.974193601264  , 1.343910611771  , -1.154924472392  , 0.176896752281  , -0.46445749251  , -0.230694534776  , 0.815981933569  , -0.281324222287 );
                        kernels[6] = compute_kernel(x,   0.13677418578  , 0.760672460577  , -0.251530571921  , 1.002780984558  , 0.186566976203  , -0.106919678406  , 1.840784715413  , -2.280688784139  , 2.150546832627  , 1.009456656736  , -0.974193601264  , 1.150982210273  , -0.281001371241  , 0.073671111342  , -0.702110699836  , -0.627137176744  , 0.535037417808  , -0.530259026803 );
                        kernels[7] = compute_kernel(x,   -1.15082495031  , 1.059529310803  , -0.981774694372  , 0.903245686831  , 0.115624936444  , 0.229167446061  , 0.446671196958  , -0.543061852943  , 1.454618587351  , 0.799746247812  , -0.974193601264  , 0.776695068902  , -1.781829601901  , 0.904058055812  , -1.195087237264  , -0.790362368119  , 1.32482601807  , -1.062041010593 );
                        kernels[8] = compute_kernel(x,   -0.849471961012  , 0.939986570712  , -1.022359222156  , 1.221758639556  , 0.598030806808  , 0.250821552273  , 0.644170612072  , -0.523967051501  , 1.241329590683  , 0.954897851163  , -0.974193601264  , 0.815912884335  , -1.58686347641  , 1.122772436026  , -1.149771451653  , -1.290779997474  , 1.281838750609  , -1.083301034524 );
                        kernels[9] = compute_kernel(x,   -0.931659139911  , 0.38212045029  , -0.563211857966  , 1.022688044103  , 0.285885831866  , 0.688590515866  , 1.840784715413  , -1.049074091148  , 1.395253320863  , 0.683303611841  , -0.974193601264  , 1.030095294414  , 0.396281422233  , 0.903249499878  , -0.419171661193  , -0.766851454792  , -1.170745035887  , -0.693001826766 );
                        kernels[10] = compute_kernel(x,   -0.438536066515  , 0.451853715342  , -0.432608698265  , 1.261572758647  , -1.743056505254  , 2.241264546765  , -0.413032139423  , -0.991789686823  , 0.428101089212  , 1.009456656736  , -0.974193601264  , 1.306187267757  , 2.471506341111  , -0.801725446801  , 2.040292203536  , -1.168023303463  , 0.140105867011  , -0.711606591533 );
                        kernels[11] = compute_kernel(x,   -0.767284782113  , 0.700901090531  , -0.77133599937  , -0.012479052252  , -1.175520187178  , 0.814478490711  , 1.074022280263  , -0.227997629155  , 0.435098265451  , 1.009456656736  , -0.974193601264  , 0.902917865853  , -0.024090504863  , 0.243198338889  , -0.443860259021  , -0.284337250816  , 0.549267171854  , -0.671078092619 );
                        kernels[12] = compute_kernel(x,   -0.794680508412  , 1.218919630924  , -1.000019158029  , 0.345848019563  , -0.678925908862  , 1.010015028396  , -0.169062273693  , 0.192088002563  , -0.06309295894  , 0.984197950452  , -0.921010381877  , 0.757626164116  , -0.968633654592  , 0.73197040114  , -0.560412436903  , -0.927779602912  , 0.506950416364  , -0.91422637733 );
                        kernels[13] = compute_kernel(x,   -0.150880940367  , 1.149186365871  , -1.295425588502  , 0.843524508196  , -1.743056505254  , 1.522591239314  , -0.064503759809  , 0.010687388867  , -0.052403288281  , 1.009456656736  , -0.974193601264  , 1.003813091255  , 2.554302260133  , 0.871715818442  , -0.521951363072  , -0.792456731088  , 1.385693604752  , -1.24924397498 );
                        kernels[14] = compute_kernel(x,   -0.876867687312  , 0.860291410652  , -1.024935775349  , -0.012479052252  , -1.331592674649  , 1.22894762382  , 0.830052414533  , -0.39985084213  , 0.61304737572  , 1.009456656736  , -0.974193601264  , 1.220754449278  , -0.433504148558  , -0.241935221658  , 0.611076871128  , -1.023106898041  , 1.315736855799  , -1.201320701717 );
                        kernels[15] = compute_kernel(x,   -0.794680508412  , 1.657243011256  , -1.265893474652  , 0.14677742411  , -0.778244764525  , 0.857084703214  , -0.413032139423  , 0.182540601842  , -0.282690535915  , 1.009456656736  , -0.974193601264  , 0.758477089061  , -1.078216488592  , 0.348984406953  , -1.085012899919  , -0.62369161186  , 0.885193669221  , -1.147574299379 );
                        kernels[16] = compute_kernel(x,   -0.575514698014  , 1.099376890833  , -1.1185208183  , 0.704175091378  , -1.416723122361  , 1.249550820673  , 1.840784715413  , -0.590798856547  , 0.561371271382  , 1.009456656736  , -0.974193601264  , 1.089423531668  , -0.155589905663  , 0.854466625179  , -0.997365648753  , -1.151808880479  , 1.282881769231  , -1.044935049488 );
                        kernels[17] = compute_kernel(x,   -1.04124204511  , 0.292463395222  , -0.696183502656  , 0.48519743638  , -1.743056505254  , 1.535035562626  , 0.481524034919  , -0.017954813296  , 0.283160647869  , 1.009456656736  , -0.974193601264  , 1.143522418396  , 1.744759073957  , -0.57007417164  , 2.395786805479  , -1.031754590299  , 1.032780804125  , -1.024689388329 );
                        kernels[18] = compute_kernel(x,   -1.10973136086  , 1.786747646354  , -1.436064778419  , 0.266219781382  , -0.409346157776  , 1.005040997202  , -0.726707681075  , 0.258919807609  , -0.170677810569  , 1.009456656736  , -0.974193601264  , 0.771192094538  , -1.109873751748  , 0.97318958819  , -1.174938857474  , -0.962437932041  , 1.227676283635  , -1.218085751565 );
                        kernels[19] = compute_kernel(x,   -1.10973136086  , 1.059529310803  , -1.250695987627  , 1.599992770917  , -1.743056505254  , 1.784209035538  , -0.413032139423  , -0.438040445014  , -0.039308142723  , 1.009456656736  , -0.974193601264  , 1.23738110472  , 0.519714308863  , 0.87724095066  , -0.578743603415  , -1.040604962845  , 1.390834196528  , -1.16424421285 );
                        kernels[20] = compute_kernel(x,   1.944892121566  , -0.016355350012  , 0.829240960573  , -1.16708850588  , 1.350016428258  , -1.136146502837  , -0.877736645575  , 1.185017677532  , -1.151367992265  , -1.416263201268  , 1.348916273625  , -1.287777967439  , 0.391715470816  , 0.113559870765  , 0.532319497526  , 1.260964819688  , -0.419250119289  , 0.863251054555 );
                        kernels[21] = compute_kernel(x,   -0.794680508412  , -0.205631355156  , 0.051917430395  , -1.047646148608  , 0.569653990904  , -0.842650721859  , -0.912589483536  , 1.299586486182  , -0.768123154162  , -0.732320581858  , 0.417583196084  , -0.557076541089  , -0.28084917286  , 0.068145979125  , -0.619798598562  , 1.105103678751  , -1.096765215109  , 0.793552806887 );
                        kernels[22] = compute_kernel(x,   0.328544269879  , 0.123111180093  , 0.814012002223  , -1.445787339514  , 0.683161254519  , -1.061709917076  , -1.052000835382  , 1.28049168474  , -1.079237687267  , -1.387215689042  , 1.145435246814  , -1.193758643468  , 0.704178746097  , -0.150568401089  , 0.580538284054  , 0.978968979952  , -0.829305440093  , 0.948497081254 );
                        kernels[23] = compute_kernel(x,   2.164057931964  , -1.341287386017  , 1.914913674216  , -1.724486173148  , -0.310027302113  , -0.69286291099  , 0.272407007151  , 1.05135406744  , -0.552996207511  , -1.335751074987  , 0.507415682253  , -1.039782834467  , 0.369190110494  , 0.325266766215  , 0.511582672816  , 1.260964819688  , -1.038728678971  , 1.507729458737 );
                        kernels[24] = compute_kernel(x,   3.013325447257  , -0.883040215669  , 1.519744177525  , -1.226809684515  , -1.473476754168  , 0.028677344144  , -0.92420709619  , 0.755384645093  , -0.933980070521  , -0.925044510806  , 1.098400031464  , -1.062571311824  , 1.788592207557  , -3.817234803569  , 2.455651908633  , 1.260964819688  , -1.170745035887  , 1.692040321093 );
                        kernels[25] = compute_kernel(x,   0.438127175078  , -0.384945465292  , 0.432150812662  , -1.16708850588  , 1.066248269221  , -1.034036776392  , -0.970677546805  , 1.318681287624  , -1.06845504386  , -1.310997542829  , 0.712209874975  , -1.030085479242  , -1.708165585712  , 0.673215336585  , -1.170730925873  , 1.260964819688  , -0.677471729374  , 0.981276604567 );
                        kernels[26] = compute_kernel(x,   1.520258363919  , 0.123111180093  , 0.777219401987  , -1.027739089062  , 0.498711951145  , -0.655220759241  , -1.005530384767  , 0.71719504221  , -0.945735312697  , -1.135828414748  , 1.32402581068  , -1.182425089437  , 1.247983559823  , -1.079060132247  , 1.539344735233  , 1.260964819688  , -1.170745035887  , 1.33105467252 );
                        kernels[27] = compute_kernel(x,   0.410731448778  , -0.833230740632  , 0.80948301742  , -1.425880279968  , 1.335828020306  , -1.160705123106  , -0.982295159459  , 1.28049168474  , -1.017620507813  , -0.847247695451  , 0.974902746491  , -1.082589581735  , -0.035200986643  , -0.780163955221  , 0.421963468892  , 1.260964819688  , -0.701386656332  , 1.293662507799 );
                        kernels[28] = compute_kernel(x,   0.13677418578  , -0.424793045322  , 0.612584642444  , -1.047646148608  , 0.867610557894  , -0.948970302943  , -1.063618448035  , 1.50008190132  , -1.057442901682  , -1.303356784178  , 1.276811527251  , -1.1920767815  , 0.238603899977  , -0.423995066186  , 0.223021191571  , 1.260964819688  , -0.993878878258  , 1.272816184323 );
                        kernels[29] = compute_kernel(x,   0.725782301226  , -0.584183365443  , 0.859380190888  , -1.346252041787  , 1.350016428258  , -1.088369592966  , -0.726707681075  , 1.242302081857  , -0.992143308864  , -1.236863239885  , 0.944103036947  , -1.077304618325  , -0.5435435777  , -0.321577981182  , -0.165846081219  , 1.260964819688  , -0.930999755663  , 1.076757830977 );
                        kernels[30] = compute_kernel(x,   0.534012217127  , -0.663878525503  , 0.993083812053  , -0.968017910427  , 0.186566976203  , -0.614311876767  , -0.819648582306  , 1.079996269602  , -0.919912186039  , -1.221518575817  , 1.105085239737  , -1.063878395838  , 0.185638863543  , -1.025156403297  , 1.085949729742  , 1.260964819688  , -1.170745035887  , 1.342141642239 );
                        kernels[31] = compute_kernel(x,   2.533900237011  , -0.893002110677  , 1.72442125812  , -1.20690262497  , 0.683161254519  , -0.92023783752  , 0.08652520469  , 0.526247027793  , -0.802659614  , -1.359052231535  , 0.595755934433  , -1.183746602515  , -1.060865873209  , -0.5644142801  , -0.32720934902  , 1.260964819688  , -1.170745035887  , 1.223772735995 );
                        kernels[32] = compute_kernel(x,   0.301148543579  , 0.063339810048  , 0.622534125941  , -1.246716744061  , 1.36420483621  , -1.12051876606  , -0.889354258229  , 0.879500854464  , -1.088852538503  , -1.550765812232  , 1.436062738613  , -1.310412105103  , -0.062140100002  , -0.471160829017  , -0.092776017418  , 1.150706743394  , -0.433181868016  , 0.813487255429 );
                        kernels[33] = compute_kernel(x,   0.602501532877  , -0.723649895548  , 0.757127977038  , -0.589783779066  , 1.066248269221  , -0.704732301123  , -1.179794574573  , 1.347323489786  , -1.004450375541  , -1.109875094041  , 1.020863553368  , -1.055816234993  , -0.967111670786  , -2.858556984199  , 0.369898931768  , 1.260964819688  , -1.170745035887  , 1.221150549267 );
                        kernels[34] = compute_kernel(x,   1.917496395266  , -1.660068026258  , 1.991358583772  , -0.649504957702  , -0.366780933921  , -0.678721308167  , 1.236668857416  , 0.278014609051  , -0.03664112472  , -0.690391129426  , 0.604828717089  , -0.57206667088  , 1.325604733906  , -0.210671058868  , 0.773283982234  , 0.437069451796  , -1.170745035887  , 1.018761646718 );
                        kernels[35] = compute_kernel(x,   0.616199396026  , -1.231706540934  , 0.959726074681  , -0.788854374519  , 0.739914886327  , -0.828697444823  , -1.179794574573  , 0.468962623468  , -0.975844785935  , -0.899722657756  , 1.336321818753  , -1.114404736075  , 0.434178818991  , 0.107765219903  , 1.219558477871  , 0.933298355212  , -0.78408313273  , 1.006108503836 );
                        kernels[36] = compute_kernel(x,   0.273752817279  , -1.04243053579  , 0.304404368787  , -0.729133195883  , 1.36420483621  , -1.222037958556  , -0.564061103922  , 0.965427460952  , -0.721448846565  , -0.845353292479  , 1.105085239737  , -0.869722263099  , -0.983396897506  , 0.494389715795  , -0.754223479474  , 0.283032433444  , -0.644616642805  , 0.388087284791 );
                        kernels[37] = compute_kernel(x,   -0.068693761468  , -0.783421265594  , 0.799740533557  , -0.171735528615  , 1.193943940788  , -1.166656517704  , -1.040383222728  , -0.275734632759  , -0.864329789822  , -1.200301262538  , 1.059303500938  , -1.067239612621  , 0.229319798763  , -1.180938179962  , 0.692294272083  , 1.260964819688  , -1.170745035887  , 0.799254211674 );
                        kernels[38] = compute_kernel(x,   -0.082391624618  , -1.301439805986  , 0.541443096147  , -0.888389672245  , 1.222320756691  , -1.309199331867  , -1.214647412535  , 0.974974861673  , -1.051600375663  , -1.012502781315  , 1.46501207801  , -1.160917626165  , -0.451767954224  , 0.372971566335  , -0.260636684017  , -0.020717757129  , -0.907829842006  , 0.446186399091 );
                        kernels[39] = compute_kernel(x,   0.040889143731  , -0.414831150314  , 0.604199380336  , -0.53006260043  , 1.222320756691  , -1.15413480299  , -0.145827048386  , 0.564436630676  , -0.71920590855  , -0.69828447514  , 1.093386125259  , -0.90249420993  , -0.536390253813  , 0.777653811425  , -0.216775618786  , 0.486861242377  , -0.407925917116  , 0.667158936272 );
                        kernels[40] = compute_kernel(x,   0.260054954129  , -1.660068026258  , 0.900710937214  , -0.549969659975  , 0.981117821509  , -0.934372889865  , -0.657002005153  , -0.132523621946  , -0.408665788628  , -0.683760719026  , 0.640940779636  , -0.712315827061  , 0.424133725874  , -1.723479211841  , 1.46643737101  , 0.771762166231  , -1.02099736241  , 0.626774205694 );
                        kernels[41] = compute_kernel(x,   0.958645974774  , -1.012544850767  , 1.018330474537  , -0.968017910427  , 0.38520468753  , -0.853976261973  , -1.01714799742  , 0.860406053023  , -0.79429680292  , -0.990590853614  , 1.235745247859  , -1.032917034722  , 1.327887709615  , -0.072003716144  , 0.637476158926  , 0.815811348672  , -1.170745035887  , 0.608193179733 );
                        kernels[42] = compute_kernel(x,   0.739480164375  , -1.201820855911  , 0.804186923396  , -0.689319076792  , 0.413581503433  , -0.903710454234  , -0.668619617806  , 0.373488616259  , -0.633248484425  , -0.449170484411  , 0.966665614869  , -0.754734320981  , 0.988789717736  , -1.400865394077  , 1.481922991049  , 1.260964819688  , -0.863576051934  , 1.120703864832 );
                        kernels[43] = compute_kernel(x,   0.725782301226  , -0.404869255307  , 1.260303721626  , -0.968017910427  , 0.186566976203  , -0.703824637473  , -0.331708850846  , 0.774479446535  , -0.558995109345  , -0.553110060771  , 0.958428483247  , -0.672484972105  , 1.165492037562  , -1.13714140019  , 2.048085463203  , 0.818378632311  , -1.170745035887  , 0.965994970693 );
                        kernels[44] = compute_kernel(x,   1.301092553521  , -1.660068026258  , 1.915578943297  , -0.689319076792  , -0.366780933921  , -0.658284756099  , -0.413032139423  , -2.147025174047  , -0.500974522455  , -1.067629907781  , 1.055960896802  , -0.935086348318  , -0.079795112146  , -1.022730735495  , 0.399893852621  , 0.821351276525  , -1.170745035887  , 1.13788303243 );
                        kernels[45] = compute_kernel(x,   0.095680596331  , -1.470792021115  , 0.710080775679  , -0.729133195883  , 0.924364189702  , -0.949000921454  , -0.796413356998  , 0.640815836443  , -0.781918747202  , -0.991664348631  , 0.463126177444  , -0.888154576553  , 0.322921802805  , -0.486792910412  , 1.255680530794  , 0.978766299664  , -0.672033132278  , 1.0708794763 );
                        kernels[46] = compute_kernel(x,   0.397033585628  , -1.660068026258  , 0.468177658189  , 0.067149185929  , 1.321639612355  , -0.966122130564  , -0.842883807613  , 0.822216450139  , -0.914352989996  , -0.823630805075  , 1.219330673975  , -0.972735573592  , -1.366784618126  , 0.859183201462  , -1.120978703187  , 0.285532156988  , -0.906414316734  , 0.465202894128 );
                        kernels[47] = compute_kernel(x,   0.081982733181  , -1.381134966047  , 0.940959263018  , -0.987924969972  , 1.123001901028  , -1.154615459751  , -0.900971870882  , 0.984522262394  , -0.901637704586  , -0.968742072678  , 1.070166964382  , -0.999609988011  , 1.004161754172  , -0.862232382547  , 1.327304140994  , 0.831147490411  , -0.986726750569  , 0.964320411404 );
                        decisions[0] = -0.136591578478
                        + kernels[0]
                        + kernels[1]
                        + kernels[2]
                        + kernels[3]
                        + kernels[5] * 0.218926552327
                        + kernels[7]
                        + kernels[8] * 0.620943389551
                        + kernels[9] * 0.289067198634
                        + kernels[10] * -0.661735000458
                        - kernels[11]
                        - kernels[12]
                        + kernels[13] * -0.024034772065
                        + kernels[14] * -0.835226048797
                        - kernels[16]
                        + kernels[18] * -0.981040848196
                        + kernels[19] * -0.626900470996
                        ;
                        decisions[1] = -0.189349046468
                        + kernels[1] * 0.424662308739
                        + kernels[3] * 0.193784250324
                        + kernels[5] * 0.230213186199
                        + kernels[6] * 0.120978389555
                        + kernels[7] * 0.567353247511
                        + kernels[8] * 0.032438160784
                        + kernels[9] * 0.439286099008
                        + kernels[20] * -0.021489428622
                        + kernels[21] * -0.617482020457
                        + kernels[23] * -0.251339688378
                        + kernels[24] * -0.638613512012
                        + kernels[25] * -0.18370532734
                        + kernels[31] * -0.131274199814
                        + kernels[33] * -0.164811465496
                        ;
                        decisions[2] = -0.098549639274
                        + kernels[1] * 0.322871687445
                        + kernels[3] * 0.285225621786
                        + kernels[4] * 0.020830246266
                        + kernels[5] * 0.218028729527
                        + kernels[6] * 0.165602461363
                        + kernels[7] * 0.379200202816
                        + kernels[8] * 0.117697958375
                        + kernels[9] * 0.434786463252
                        + kernels[34] * -0.392847928892
                        + kernels[39] * -0.31284741607
                        + kernels[40] * -0.041808212707
                        + kernels[43] * -0.293815470032
                        + kernels[44] * -0.380540498715
                        + kernels[46] * -0.522383844414
                        ;
                        decisions[3] = -0.091666947334
                        + kernels[10] * 0.644981222114
                        + kernels[11] * 0.319124098174
                        + kernels[13] * 0.216630557523
                        + kernels[15] * 0.036443489167
                        + kernels[16] * 0.136574102746
                        + kernels[17] * 0.2035849473
                        + kernels[18] * 0.709127182784
                        + kernels[20] * -0.053443910442
                        + kernels[21] * -0.716179470401
                        + kernels[23] * -0.28609495944
                        + kernels[24] * -0.739009110724
                        + kernels[25] * -0.18208372227
                        + kernels[31] * -0.09842816038
                        + kernels[33] * -0.19122626615
                        ;
                        decisions[4] = 0.004680548304
                        + kernels[10] * 0.616486604416
                        + kernels[11] * 0.383283594851
                        + kernels[13] * 0.180032947098
                        + kernels[16] * 0.109539578901
                        + kernels[17] * 0.198957622381
                        + kernels[18] * 0.62381660071
                        + kernels[34] * -0.365768634178
                        + kernels[39] * -0.213334883693
                        + kernels[43] * -0.49783502533
                        + kernels[44] * -0.417408382776
                        + kernels[46] * -0.61777002238
                        ;
                        decisions[5] = 0.202828896117
                        + kernels[20] * 0.324915718106
                        + kernels[21]
                        + kernels[22]
                        + kernels[23]
                        + kernels[24]
                        + kernels[25] * 0.946244815861
                        + kernels[26]
                        + kernels[27]
                        + kernels[28]
                        + kernels[29] * 0.782777721295
                        + kernels[30]
                        + kernels[31] * 0.592928046743
                        + kernels[32]
                        + kernels[33] * 0.431543221454
                        + kernels[34] * -0.872754658339
                        - kernels[35]
                        - kernels[36]
                        - kernels[37]
                        - kernels[38]
                        - kernels[39]
                        - kernels[41]
                        - kernels[42]
                        - kernels[43]
                        + kernels[44] * -0.374498190292
                        + kernels[45] * -0.868209460479
                        + kernels[46] * -0.962947214348
                        - kernels[47]
                        ;
                        votes[decisions[0] > 0 ? 0 : 1] += 1;
                        votes[decisions[1] > 0 ? 0 : 2] += 1;
                        votes[decisions[2] > 0 ? 0 : 3] += 1;
                        votes[decisions[3] > 0 ? 1 : 2] += 1;
                        votes[decisions[4] > 0 ? 1 : 3] += 1;
                        votes[decisions[5] > 0 ? 2 : 3] += 1;
                        int val = votes[0];
                        int idx = 0;

                        for (int i = 1; i < 4; i++) {
                            if (votes[i] > val) {
                                val = votes[i];
                                idx = i;
                            }
                        }

                        return idx;
                    }

                protected:
                    /**
                    * Compute kernel between feature vector and support vector.
                    * Kernel type: rbf
                    */
                    float compute_kernel(float *x, ...) {
                        va_list w;
                        va_start(w, 18);
                        float kernel = 0.0;

                        for (uint16_t i = 0; i < 18; i++) {
                            kernel += pow(x[i] - va_arg(w, double), 2);
                        }

                        return exp(-0.05 * kernel);
                    }
                };
            }
        }
    }